%YAML:1.0
---
myHogDector1: !!opencv-object-detector-hog
   winSize: [ 64, 128 ]
   blockSize: [ 16, 16 ]
   blockStride: [ 8, 8 ]
   cellSize: [ 8, 8 ]
   nbins: 9
   derivAperture: 1
   winSigma: 4.
   histogramNormType: 0
   L2HysThreshold: 2.0000000000000001e-01
   gammaCorrection: 1
   nlevels: 64
   signedGradient: 0
   SVMDetector: [ 6.52883202e-03, -2.35040635e-02, 3.37165105e-03,
       -1.23744346e-02, -2.73304083e-03, -1.46311335e-02,
       -2.56261844e-02, -4.23420444e-02, -8.57069995e-03, 2.61041969e-02,
       -1.30863823e-02, -9.54986643e-03, -1.72976684e-02, 3.64033505e-02,
       -3.23103108e-02, 1.08005793e-03, -1.54236788e-02, 6.90659136e-03,
       3.64219509e-02, -3.58225331e-02, -1.76189579e-02, -9.58671886e-03,
       -2.00254247e-02, 2.85803545e-02, -8.66012182e-03, -4.89178002e-02,
       1.87787395e-02, 1.99197046e-02, -1.52794481e-03, -2.12642131e-03,
       -4.27723955e-03, 4.18619514e-02, -6.39668433e-04, 1.75857022e-02,
       7.00559979e-03, 9.03624203e-03, 7.77736492e-03, -2.79415604e-02,
       -2.85771936e-02, 1.04210114e-04, 2.12467611e-02, -3.56053584e-03,
       1.56623852e-02, -1.57405622e-02, 1.02574201e-02, 5.96067961e-03,
       7.93240406e-03, -1.18015986e-02, 2.59374026e-02, 2.43666652e-03,
       4.33169082e-02, 2.42315978e-02, -1.35054588e-02, -4.65546083e-03,
       -1.50165670e-02, 3.18520283e-03, -1.97350662e-02, -1.77745018e-02,
       4.02768999e-02, -1.51755260e-02, 7.54427817e-03, -2.51564309e-02,
       -9.64892283e-03, -8.41483194e-03, 2.95690820e-03, -2.33548768e-02,
       -3.07694869e-03, 1.43996049e-02, 2.66995262e-02, 2.71051079e-02,
       -1.82714581e-03, -3.31508112e-04, -1.39088312e-03, 8.23839474e-03,
       -1.02009270e-02, -8.25514365e-03, -4.21832465e-02, 1.93520728e-02,
       2.46601645e-02, -6.40721479e-03, -1.21053467e-02, 2.21933927e-02,
       2.12451462e-02, 3.14413793e-02, 4.61727986e-03, -1.29327190e-03,
       -1.13554560e-02, 6.79516839e-03, 6.63336553e-03, -1.13193411e-02,
       -1.23841604e-02, -1.78168509e-02, -1.77747738e-02,
       -5.51743619e-02, -5.47494441e-02, 7.20359804e-03, 6.09702431e-02,
       1.20061366e-02, 8.01578443e-03, -6.16288278e-03, -1.68256536e-02,
       -5.49560273e-03, -2.10719611e-02, 2.40843687e-02, -7.64861703e-03,
       3.65416855e-02, 2.31624525e-02, 1.13273067e-02, 2.04123929e-02,
       2.13431213e-02, 3.64850163e-02, 2.32394971e-02, -1.10290460e-02,
       -2.72185933e-02, -3.92104592e-03, -1.03118410e-02,
       -1.53981531e-02, -3.65009308e-02, -1.49399927e-02,
       -4.11563116e-04, 1.52610121e-02, -2.89571080e-02, -2.91839987e-02,
       -3.59630920e-02, 6.08379487e-03, -6.64093345e-03, 1.66342326e-03,
       7.68295163e-03, 1.21109989e-02, -8.82390141e-03, -3.10379243e-03,
       -3.52171399e-02, -3.07242828e-03, -2.05480326e-02,
       -1.13806296e-02, 2.24776901e-02, -2.73066703e-02, -2.44919658e-02,
       7.17849052e-03, -5.73667977e-03, 1.35799255e-02, -4.93047247e-03,
       1.82527527e-02, 1.41279586e-02, -9.11602471e-03, 9.03136283e-03,
       -1.69710461e-02, 3.00312485e-03, -2.33216733e-02, -1.12868454e-02,
       -1.75865702e-02, 2.59077214e-02, 2.37707258e-03, -4.02108431e-02,
       2.78721321e-02, -3.33129913e-02, -3.14895846e-02, 2.45470926e-02,
       -2.41157934e-02, -8.59103724e-03, 2.31140461e-02, -1.81506556e-02,
       3.51630198e-03, 2.74369377e-03, 3.12769320e-03, 1.64725985e-02,
       3.14671025e-02, 3.19432467e-02, -1.54866639e-03, 4.20980006e-02,
       -1.78282231e-03, -2.88653784e-02, -7.73333432e-03,
       -4.15302776e-02, 3.01032211e-03, 3.88800688e-02, 6.65146764e-03,
       9.61242430e-03, 1.68991052e-02, 1.26362517e-02, -4.39365841e-02,
       1.58123542e-02, -1.85111761e-02, 1.54007701e-02, 1.46099515e-02,
       8.35797749e-03, 5.10266330e-03, 2.28807870e-02, -1.08660888e-02,
       -1.87234692e-02, -2.74864435e-02, -1.71099510e-02, 2.35243570e-02,
       2.45624576e-02, -2.46569384e-02, -1.78454760e-02, 2.11312342e-02,
       1.75801031e-02, 1.86478477e-02, -1.06468732e-02, -2.59061661e-02,
       1.59880873e-02, 1.36335986e-03, 3.39753963e-02, 1.71230547e-02,
       4.15678024e-02, 2.59659290e-02, -1.66740194e-02, -5.98168746e-03,
       -6.40618429e-03, 7.06747966e-03, 3.52119431e-02, -1.66746415e-02,
       -2.28034686e-02, 6.73760287e-03, 2.01401040e-02, -1.29812201e-02,
       -1.02596115e-02, 4.85180039e-03, 3.00227571e-02, -6.93953782e-03,
       -1.67558640e-02, -1.33563904e-02, 5.35018295e-02, 3.30367684e-02,
       -3.01148444e-02, -3.52256782e-02, -2.16419175e-02,
       -4.49518412e-02, -1.36925867e-02, -2.64160372e-02,
       -2.67345887e-02, -1.42591051e-03, 4.44756774e-03, -4.94735735e-03,
       7.25199748e-03, 4.15823981e-02, 3.67679819e-02, 3.82599086e-02,
       1.17731802e-02, 4.84022312e-03, 3.36573236e-02, 2.59447861e-02,
       -2.29400322e-02, -1.10974209e-02, -4.02816990e-03,
       -3.05578131e-02, 3.05633824e-02, -1.13944300e-02, -2.43756734e-03,
       1.09762475e-02, -1.23276515e-02, -5.62814123e-04, 4.38715378e-03,
       -1.18200213e-03, -1.45951780e-02, -1.49829010e-03, 2.00651810e-02,
       -1.60718523e-02, 2.11620219e-02, 5.64790564e-03, -4.50707674e-02,
       -3.68930362e-02, -6.47538202e-03, -3.20313796e-02,
       -4.26227488e-02, -4.29088995e-02, -3.36100198e-02, 1.86147224e-02,
       -1.74496677e-02, -5.44172479e-03, 2.98040006e-02, -7.39005115e-03,
       1.38335200e-02, 2.38395687e-02, 5.33182062e-02, 1.14038531e-02,
       1.37216030e-02, -6.17976626e-03, -2.23972537e-02, -1.17968190e-02,
       -2.42920928e-02, -2.70502251e-02, -2.38949694e-02,
       -1.26953050e-02, -1.80952571e-04, -6.35699718e-04,
       -8.22423398e-03, -1.50060747e-03, -2.93031428e-02, 7.30466843e-03,
       -1.11688790e-03, -3.06954011e-02, -4.38814238e-03,
       -1.78477988e-02, 2.03958135e-02, -1.26344746e-03, -2.70372313e-02,
       -4.94150072e-02, -6.85676606e-03, -2.41842354e-03, 2.78044268e-02,
       -3.58194672e-02, -7.39077898e-03, -1.26580261e-02,
       -4.17997427e-02, 2.29909960e-02, 2.71033612e-03, 1.49339708e-02,
       -2.21114652e-03, -4.53111203e-03, 4.76285182e-02, 3.82811539e-02,
       2.46751327e-02, 5.87320887e-03, -1.85650196e-02, 2.40260386e-03,
       3.06461379e-03, -5.38963312e-03, 1.49202056e-03, 8.49550497e-03,
       1.24556515e-02, -9.95555241e-03, -1.35991750e-02, 2.47541699e-03,
       -1.46734780e-02, 1.57197786e-03, -9.26980097e-03, 2.80941837e-02,
       -4.11974415e-02, -1.80287920e-02, 3.09357024e-03, -1.75364614e-02,
       2.38209870e-02, -8.07523914e-03, -9.84292757e-03, -1.62846986e-02,
       1.63209755e-02, -2.01646648e-02, -2.46783588e-02, 3.29558179e-02,
       2.91289315e-02, -1.23445895e-02, -9.60978400e-03, 7.74962176e-03,
       2.13487055e-02, -2.76732873e-02, -1.90113857e-02, -1.13032646e-02,
       8.17092508e-03, -4.18180488e-02, -1.72483306e-02, -7.54911499e-03,
       7.25041842e-03, 1.12009468e-02, 1.56085193e-02, -1.75998034e-03,
       -3.53331082e-02, 3.07058753e-03, -2.12800056e-02, 2.36567222e-02,
       -8.96680169e-03, -2.25807801e-02, -1.14870677e-02,
       -8.68602656e-03, -1.39810639e-02, -3.59000079e-02, 3.46966386e-02,
       4.08281051e-02, -1.02394586e-02, -1.58845633e-02, -3.39460769e-03,
       -1.63990222e-02, 1.33843785e-02, -2.81982049e-02, -4.39912975e-02,
       7.18976930e-03, -8.16702435e-04, 2.13874131e-03, -6.47987938e-03,
       8.03237036e-03, 3.05017922e-03, 6.49926811e-03, 2.52472293e-02,
       -1.80330947e-02, 1.70444567e-02, 8.45145248e-03, 1.86301190e-02,
       -1.37243615e-02, -1.86754783e-04, -5.84040023e-03, 7.59530114e-03,
       -9.33605072e-04, -1.65546313e-02, -3.28357494e-03,
       -4.12905915e-03, -3.97534017e-03, 1.94355231e-02, 1.01903947e-02,
       -1.21290761e-03, 7.50915101e-03, 5.71788149e-03, -1.07443919e-02,
       2.58709192e-02, 1.34588210e-02, 1.00617399e-02, 2.09581051e-02,
       -2.74353772e-02, -2.21655536e-02, -2.19896771e-02,
       -2.20695883e-02, -5.23311868e-02, 1.01863379e-02, -4.09750082e-03,
       1.00389570e-02, -5.68670267e-03, 2.54738051e-02, 7.87266996e-03,
       2.30550952e-02, 2.77213268e-02, -1.00321136e-02, 4.71145194e-03,
       2.28110992e-04, 3.54597578e-03, 1.03636356e-02, -8.26057699e-03,
       5.51680848e-03, -9.38349310e-03, 8.15039221e-03, -3.43069285e-02,
       -8.76329932e-03, -1.58963706e-02, 2.78496975e-03, 3.40115614e-02,
       -1.42678395e-02, 3.58094238e-02, 4.03107405e-02, -2.84218724e-04,
       -5.88890575e-02, 8.74837581e-03, 1.90232955e-02, -1.75003707e-02,
       1.07908901e-02, -4.40625194e-03, -1.58774815e-02, 4.63999175e-02,
       -9.47536249e-03, -2.42168661e-02, 1.99295394e-02, -4.95825149e-03,
       -1.59971546e-02, 7.85663072e-03, 8.08971375e-03, 6.16992563e-02,
       3.76950614e-02, 2.77751535e-02, 2.04919763e-02, 2.63727438e-02,
       -9.98903252e-03, -2.97501236e-02, -2.73526032e-02,
       -1.76320188e-02, -1.87718589e-03, 1.17226073e-03, 8.87276977e-03,
       2.93193921e-03, 4.98892227e-03, 3.79115299e-05, 8.04476999e-03,
       4.50295582e-02, 3.94999422e-02, 1.42310224e-02, 1.97995696e-02,
       2.38802824e-02, 4.52551357e-02, 5.23152910e-02, 3.57596800e-02,
       4.39641019e-03, -8.92997952e-04, -1.36906588e-02, -3.35461311e-02,
       2.27060504e-02, -3.27036227e-03, 2.17238963e-02, -2.89548710e-02,
       -9.36769973e-03, -8.51649046e-03, 2.28046346e-02, 3.07052545e-02,
       1.53126987e-02, -2.70558521e-02, -8.54761805e-04, 1.31286690e-02,
       4.92438907e-03, 2.81039868e-02, -1.59865338e-02, -1.43017555e-02,
       -1.65236779e-02, -5.03360025e-05, 3.55274347e-03, -3.54615375e-02,
       -1.57885198e-02, -5.55490367e-02, -3.34310830e-02, 9.80135333e-03,
       1.63064692e-02, -1.21609364e-02, -1.37585439e-02, 4.03612442e-02,
       3.00204512e-02, 1.84907466e-02, -2.05696770e-03, -1.29641620e-02,
       -1.24336034e-02, -1.68113131e-02, -1.26033956e-02,
       -2.02128366e-02, -1.70884486e-02, -4.86231782e-02,
       -3.14664319e-02, -4.73420210e-02, -3.41730341e-02, 1.43633857e-02,
       -5.43754874e-03, -7.09850667e-03, 6.48401305e-03, 3.06421574e-02,
       1.72876511e-02, 1.15066499e-03, -7.70662352e-03, -5.28982468e-03,
       1.55709768e-02, -2.37957481e-02, 4.56620473e-03, 1.87132526e-02,
       1.77578628e-02, -5.71206100e-02, -1.98406987e-02, -3.34112868e-02,
       2.55016959e-03, 6.30540475e-02, 1.36631064e-03, -1.77827738e-02,
       -1.32512096e-02, -1.95887294e-02, 7.61656836e-03, -2.20281929e-02,
       -1.96226854e-02, 2.57681385e-02, 5.27400225e-02, 3.83846834e-02,
       3.89913172e-02, 2.65155938e-02, 3.01067159e-03, -7.99125340e-03,
       1.04240235e-02, 2.95448061e-02, 5.65927364e-02, -1.52450809e-02,
       -4.07777950e-02, -2.62574442e-02, 2.24608881e-03, -1.45875837e-03,
       1.06986193e-02, -3.06674223e-02, -1.02253491e-02, 9.21442918e-03,
       1.14690689e-02, -5.07334364e-04, -7.39951851e-03, 1.51779298e-02,
       -2.48091072e-02, -1.33801915e-03, -6.47696014e-03, 2.11381633e-02,
       2.77816541e-02, 1.38024576e-02, 4.71303845e-03, 1.11439284e-02,
       1.23221446e-02, -1.84135232e-03, -2.12585926e-02, 5.45933004e-03,
       1.34030879e-02, 2.20221970e-02, 3.84663162e-03, -1.07448958e-02,
       -4.54843463e-03, 3.53905561e-05, -2.22699251e-02, -4.19758353e-03,
       1.79986451e-02, -9.14763473e-03, -9.32491664e-03, 2.38422900e-02,
       2.67848428e-02, 1.62148625e-02, -5.68921585e-03, 2.39996314e-02,
       -9.49976593e-03, 1.91755220e-02, -5.89642208e-03, 2.61702035e-02,
       2.65887715e-02, 3.26209376e-03, 1.98367853e-02, 2.14537196e-02,
       8.90894979e-03, -1.87420435e-02, 2.33010519e-02, 2.22104900e-02,
       2.90346481e-02, -1.95016395e-02, -3.16914469e-02, -6.37203455e-03,
       -2.95712128e-02, -1.32791679e-02, -1.22183217e-02, 1.25442231e-02,
       -1.10785728e-02, -3.19785252e-02, -2.27128360e-02,
       -3.14152450e-03, 2.76490655e-02, -2.50374842e-02, 5.49286231e-02,
       -3.06281401e-03, 2.98148729e-02, 5.01654223e-02, 3.21090370e-02,
       -8.33692495e-03, -1.45385200e-02, 1.63742695e-02, 3.62641886e-02,
       3.29197757e-02, -2.53353082e-02, -1.67482477e-02, 4.26572841e-03,
       -8.11916031e-03, -1.87485255e-02, 5.29191131e-03, 1.33662112e-02,
       2.79800985e-02, 5.93914725e-02, -1.38391406e-04, 2.93118525e-02,
       4.82530929e-02, 1.76593158e-02, -2.03591189e-03, 2.77154446e-02,
       2.14426666e-02, -3.69548164e-02, 1.80097541e-03, -1.73135567e-02,
       1.01343244e-02, 3.20574157e-02, 9.08242818e-03, 2.66322047e-02,
       3.06596681e-02, -2.04465669e-02, -1.73341054e-02, 1.53076043e-02,
       9.38296132e-03, 1.49914922e-04, 4.08226438e-03, 3.94207239e-03,
       -2.17507500e-02, 5.92072457e-02, 8.54308680e-02, 1.27680358e-02,
       -1.03135137e-02, -1.98184140e-02, 1.16913328e-02, 4.29958813e-02,
       -1.01575172e-02, 1.90976355e-02, 8.70044827e-02, 1.28147174e-02,
       5.70766686e-04, 1.29652973e-02, -1.91025790e-02, -4.77807224e-03,
       -1.72667094e-02, -3.37756053e-02, 8.65936186e-03, 2.23399308e-02,
       -9.92478989e-03, -1.86465289e-02, 3.01594492e-02, -2.20818934e-03,
       1.79582858e-04, 1.16668716e-02, -3.86463329e-02, -8.19515996e-03,
       1.64550971e-02, -5.01577109e-02, -2.04175115e-02, 3.47902030e-02,
       -2.82657817e-02, -1.88708398e-02, -1.87146571e-02,
       -5.68502909e-03, 4.54545654e-02, 9.39647481e-02, -1.02249086e-02,
       -3.93643510e-03, 1.75077524e-02, -1.49921747e-02, -1.46784848e-02,
       -3.20129329e-03, -1.93611458e-02, -1.91218108e-02, 4.55505699e-02,
       -4.20979373e-02, -1.92606691e-02, 4.34361733e-02, -3.34257856e-02,
       -2.37926487e-02, -5.43840602e-03, -1.02607291e-02, 6.02414012e-02,
       3.83130535e-02, -1.24446414e-02, -1.39515530e-02, -1.23074194e-02,
       -1.54041033e-02, -1.95910893e-02, 1.12270908e-02, 5.68263754e-02,
       2.93983147e-02, 1.46301258e-02, -3.13334633e-03, -7.31676305e-03,
       3.68089452e-02, -1.09551763e-02, -1.66362915e-02, 1.28650572e-03,
       3.30710672e-02, 1.30696865e-02, 6.08863421e-02, -1.09020472e-02,
       -1.73245389e-02, -1.90457562e-03, -3.00490409e-02, 4.64384304e-03,
       2.74508614e-02, -7.54408212e-03, -1.90940555e-02, -2.28959769e-02,
       -3.02036889e-02, -5.93311246e-03, 2.25441381e-02, -2.02803575e-02,
       5.39059332e-03, -1.74140465e-02, -3.66423428e-02, 1.69200227e-02,
       2.21636016e-02, 1.84612274e-02, -1.40600642e-02, 2.83912290e-02,
       1.18507119e-02, -3.06471414e-03, 3.40577923e-02, 5.68422936e-02,
       -7.73504702e-03, 9.78864729e-03, 2.48046359e-03, -3.70563157e-02,
       2.90889852e-03, -1.76057685e-02, -2.33520027e-02, 3.67548689e-02,
       4.11885045e-02, 4.16891426e-02, 4.23211679e-02, 1.84789747e-02,
       1.02019394e-02, 1.41611295e-02, 2.30123866e-02, 3.58575769e-02,
       3.83760482e-02, 1.12319523e-02, 5.38961999e-02, 9.91119631e-03,
       5.23128686e-03, -2.82755774e-02, -2.38951184e-02, -1.40602263e-02,
       1.00015020e-02, 2.46500019e-02, -1.14514623e-02, 1.54402796e-02,
       1.42496182e-02, -4.53606546e-02, -1.88668091e-02, -1.02335855e-03,
       1.42782517e-02, -2.70560104e-02, 8.05215165e-03, 1.36378417e-02,
       2.15653721e-02, 2.96179391e-02, -2.66162530e-02, -1.26838067e-03,
       2.12161220e-03, -9.60074086e-03, -1.33536113e-02, -1.23918187e-02,
       -3.67588899e-03, 5.53658791e-02, 2.50185337e-02, -2.48210896e-02,
       1.31806117e-02, -2.54686602e-04, 2.97404863e-02, -1.67005938e-02,
       1.64695308e-02, 5.52727049e-03, 2.26457920e-02, 2.40727011e-02,
       -2.53477655e-02, 2.74095125e-02, 3.56343873e-02, 1.36907324e-02,
       -1.63445082e-02, 3.53533961e-02, 4.20054980e-02, 1.52065745e-02,
       4.62899096e-02, 1.19452653e-02, 9.76142660e-03, -2.94358749e-02,
       5.99866919e-03, -2.88108829e-03, 3.28312605e-03, -1.45578291e-02,
       -7.45076966e-03, 1.50217554e-02, 1.22164488e-02, 5.48871094e-03,
       -2.75167637e-02, 4.42523276e-03, 1.59082329e-03, -1.44689130e-02,
       -4.06684801e-02, 8.80369823e-03, 4.76997197e-02, 3.09486291e-03,
       4.87923287e-02, 5.00769317e-02, 5.76295368e-02, 2.67468654e-02,
       3.84361818e-02, 3.14102769e-02, -1.71604343e-02, 1.72573589e-02,
       2.03582421e-02, 3.98863815e-02, 5.15337586e-02, 5.81785068e-02,
       -1.32122310e-02, 5.52550564e-03, 7.80753233e-03, -2.00169953e-03,
       -1.24692544e-02, -1.60144195e-02, 3.52923525e-03, -2.38780137e-02,
       1.42543390e-02, -8.94975476e-03, 4.96073300e-03, -1.94662083e-02,
       -3.83109339e-02, -1.53956227e-02, -1.62486397e-02,
       -2.19425205e-02, -1.96801056e-03, 2.02096123e-02, -2.60267835e-02,
       -7.43145077e-03, -4.91381958e-02, 8.33616406e-03, 1.34420888e-02,
       1.07854269e-02, 4.64070868e-03, 1.16224885e-02, 5.42073585e-02,
       -4.00400832e-02, 5.73233422e-03, -4.71765595e-03, 2.91208997e-02,
       3.05351354e-02, 1.43208150e-02, 1.31439967e-02, 1.44666974e-02,
       2.16937568e-02, -4.94182631e-02, -2.70582531e-02, -2.09112614e-02,
       -3.43025811e-02, 5.08016441e-04, -3.66640948e-02, -1.53531600e-02,
       -1.80304833e-02, 1.48070185e-02, -1.01806279e-02, 1.59652717e-02,
       -4.77420799e-02, -2.05984749e-02, -7.73714809e-03,
       -2.39302590e-02, -1.31197255e-02, -1.03509985e-02,
       -4.36543003e-02, -2.24139523e-02, -1.70409717e-02,
       -2.65972801e-02, 3.26680131e-02, 3.36602628e-02, -1.64583977e-02,
       3.84488776e-02, 7.68427795e-04, -9.54846013e-03, 4.76421788e-03,
       2.08705887e-02, 1.31684151e-02, -7.29030790e-03, 2.16191802e-02,
       -4.91952896e-02, 1.56934820e-02, 1.18148373e-02, -2.22362336e-02,
       -2.12720372e-02, -8.65778141e-03, 1.53439795e-03, 7.45006488e-04,
       -9.11744498e-03, -8.74109752e-03, -1.65233612e-02, 2.89989228e-04,
       9.64166969e-03, -1.78333335e-02, 5.46641531e-04, 1.59360431e-02,
       -3.65210064e-02, -1.77451745e-02, -2.15158314e-02,
       -3.85908782e-02, -4.50835153e-02, -3.70732788e-03,
       -1.34909023e-02, -1.59801580e-02, -4.11229990e-02, 1.77584291e-02,
       4.61952463e-02, -1.90867530e-03, 2.44026929e-02, 6.96497038e-02,
       6.11349009e-02, 1.61351003e-02, 3.05380882e-03, -2.68254266e-03,
       1.42134959e-02, 2.21934617e-02, 2.79503060e-03, 3.59469540e-02,
       1.62177682e-02, 2.10386701e-02, -2.27701012e-03, 1.48906810e-02,
       -8.37859977e-03, -1.53285023e-02, -1.31433289e-02, 7.97664188e-03,
       -1.71704148e-03, -3.98640260e-02, -1.63247455e-02, 3.24647166e-02,
       4.10086736e-02, -7.84907676e-03, -4.04019319e-02, -5.20953536e-02,
       -2.21266486e-02, -2.54218634e-02, -3.57072465e-02,
       -3.97505090e-02, -4.05641878e-03, 1.80602465e-02, 3.36529058e-03,
       5.59581742e-02, 5.22502922e-02, 7.73794129e-02, 6.77970797e-02,
       2.11798791e-02, 4.20930088e-02, 5.38169816e-02, 6.42620623e-02,
       1.74392306e-04, -5.43111190e-03, -9.35152080e-03, 2.55127382e-02,
       -6.96408330e-03, 3.27248313e-02, 1.26063777e-02, 1.87392607e-02,
       4.99656089e-02, -1.05124246e-02, 1.25618209e-03, 1.26876812e-02,
       1.61791425e-02, 2.32599657e-02, -3.94026041e-02, -1.95521023e-02,
       3.39038782e-02, 1.78845022e-02, 1.53933838e-02, -1.46893170e-02,
       -1.15583520e-02, -2.71402183e-03, -1.00063551e-02,
       -4.35546366e-03, -5.18646240e-02, 1.28675047e-02, -5.35714952e-03,
       -2.34955028e-02, 1.67656429e-02, 4.14318964e-03, 3.74900438e-02,
       3.64936180e-02, 3.26803997e-02, 5.39976768e-02, 5.79361804e-02,
       3.86429168e-02, 1.82818696e-02, -3.31011377e-02, -3.41404639e-02,
       1.30255241e-03, -4.63663302e-02, 1.61412358e-02, -3.16717699e-02,
       1.45364867e-03, -2.65304763e-02, -2.54906788e-02, 1.13365715e-02,
       2.45583113e-02, 2.57764738e-02, 2.83303000e-02, 2.27258541e-02,
       2.08709147e-02, 3.46571691e-02, 1.45551031e-02, -9.11959261e-03,
       1.15348706e-02, -1.16031347e-02, 1.95280276e-02, 1.62676852e-02,
       -1.35383261e-02, -3.73616330e-02, -2.54864488e-02,
       -5.66683337e-02, 8.65644682e-03, 5.85919758e-03, 1.59655139e-02,
       3.27351242e-02, 1.36478702e-02, -5.00748772e-03, 6.29951246e-04,
       3.10085304e-02, 4.09986562e-04, 8.52372264e-04, 3.20772827e-02,
       -4.62877937e-02, 1.41656958e-02, 2.08970923e-02, 1.00768721e-02,
       -4.83476848e-04, -9.72001906e-03, -4.65803109e-02, 1.41503466e-02,
       -2.83108763e-02, -3.14273611e-02, -1.19599272e-02,
       -1.05308862e-02, -1.62821617e-02, 1.24627240e-02, -3.39133218e-02,
       -8.70997831e-03, -9.68115497e-03, 9.81839560e-03, 2.03843191e-02,
       3.25386561e-02, 2.20961235e-02, -5.49253135e-04, 4.07370552e-03,
       -1.42171206e-02, -1.19675286e-02, 1.36109898e-02, 3.58367153e-02,
       -2.79034227e-02, -1.12000639e-02, -1.98106244e-02,
       -2.50858087e-02, -1.79675687e-02, -3.83561738e-02,
       -3.77250724e-02, 1.44621311e-02, -4.50333301e-03, -1.18994750e-02,
       3.36807892e-02, 3.75290066e-02, -8.30968469e-03, 2.85586100e-02,
       -5.46242809e-03, -9.74144414e-03, -2.98784897e-02,
       -3.48196249e-03, 2.19988562e-02, 2.70362198e-02, -5.15077636e-02,
       -2.88008973e-02, -2.27937344e-02, -1.41558768e-02,
       -3.37427221e-02, -1.34966960e-02, 2.22009812e-02, 2.81972438e-03,
       1.70071125e-02, 2.70347251e-03, -6.65408000e-03, -1.77802816e-02,
       -2.14268845e-02, 9.82575864e-03, 3.15314941e-02, -3.66475023e-02,
       1.38325738e-02, 7.88626373e-02, 5.18626086e-02, 2.44281534e-02,
       1.98217034e-02, -1.07563948e-02, -4.60418463e-02, -8.05071741e-02,
       7.75659010e-02, 7.83818439e-02, 7.74485767e-02, 5.27060814e-02,
       3.85400057e-02, 4.09697853e-02, 1.13513628e-02, 3.31684276e-02,
       3.68438400e-02, 6.72235293e-03, -4.93377820e-02, -2.28187349e-02,
       1.40136890e-02, -1.14192134e-02, -7.06782937e-02, -3.59629281e-02,
       4.38277572e-02, 4.33706678e-02, -4.17028442e-02, -2.46368703e-02,
       1.93972848e-02, 8.04029219e-03, 2.47255364e-03, -5.83213866e-02,
       8.58541392e-03, 4.16993350e-02, 3.73510830e-03, 8.12939927e-02,
       -2.72679911e-03, 2.71803379e-04, 7.88022112e-03, 4.22846526e-02,
       -2.50620227e-02, -3.63648590e-03, 1.08719207e-01, 1.19789116e-01,
       2.10509915e-02, -2.88985185e-02, 5.52212857e-02, 5.43529950e-02,
       6.53854534e-02, -4.74902615e-03, 7.09296092e-02, 1.16723739e-01,
       7.54406601e-02, -3.95594873e-02, 8.68335292e-02, 1.58248395e-01,
       9.04699266e-02, 9.30372626e-03, -3.23584080e-02, -2.19797553e-03,
       2.20279843e-02, -3.37774307e-02, -4.65944745e-02, 6.97142631e-02,
       5.68723679e-02, 1.98874008e-02, 9.90785891e-04, -5.88870086e-02,
       -6.25311732e-02, -4.61517386e-02, -7.52988085e-02,
       -2.87691522e-02, 7.55464137e-02, 1.36571720e-01, 9.51631740e-02,
       5.59318960e-02, 1.73099302e-02, 4.37725745e-02, 5.26565984e-02,
       3.59993149e-03, -5.91488704e-02, 1.56084076e-02, 3.64022925e-02,
       1.33580817e-02, -1.83175539e-03, -3.50353234e-02, -4.93499525e-02,
       -1.95438415e-02, -6.04059622e-02, 2.61042118e-02, 9.09211263e-02,
       3.15836109e-02, 7.61554344e-03, -1.87717415e-02, -4.08503180e-03,
       1.58683266e-02, 3.55847031e-02, -9.07220133e-03, -2.88281254e-02,
       3.66617814e-02, -3.36286798e-02, -4.25982699e-02, 2.19302699e-02,
       2.88562500e-03, 1.44608226e-02, 3.04637197e-02, 1.70152057e-02,
       -2.41793171e-02, 2.08519008e-02, 6.36279443e-03, -3.29327211e-02,
       -6.34465367e-02, -7.76855415e-03, -1.11903930e-02, 1.34098465e-02,
       -1.25506977e-02, -1.70506164e-02, -2.31189858e-02,
       -3.00417934e-02, -5.92831038e-02, -1.07158488e-02,
       -4.12380621e-02, -1.54142845e-02, 1.17610702e-02, 2.15976760e-02,
       8.96894932e-03, 6.63481504e-02, -1.45549877e-02, -2.06342880e-02,
       2.45763292e-03, 9.18227434e-03, 2.50049997e-02, 6.49698749e-02,
       3.61619368e-02, 3.40284640e-03, 3.94228697e-02, 1.73894987e-02,
       1.47069553e-02, 1.29240006e-02, 3.04383952e-02, 3.33773568e-02,
       1.87845137e-02, -3.49871442e-02, 1.27377482e-02, 2.82653514e-02,
       -1.11384140e-02, -3.28773931e-02, -1.99503209e-02,
       -3.07674962e-03, 1.37114935e-02, 4.96763438e-02, 2.22250074e-02,
       -1.91156054e-03, -1.42314180e-03, -2.09155604e-02,
       -2.10509244e-02, -3.94722074e-03, -1.13266883e-02, 1.42618380e-02,
       -9.66895930e-03, -6.95772702e-03, 5.07134758e-02, 6.61839470e-02,
       4.55080718e-02, 2.06704903e-02, -8.73316359e-03, 3.06237824e-02,
       3.94726507e-02, 4.13334407e-02, 2.91083399e-02, 5.40262014e-02,
       6.13476671e-02, 3.48095298e-02, -2.46662460e-02, -1.55119319e-02,
       -8.98355711e-03, 2.27244385e-02, -1.10800774e-03, -2.70150322e-02,
       8.20500124e-03, 4.47534811e-04, -1.13597710e-03, -1.57433022e-02,
       -6.38814596e-03, 3.22888456e-02, 1.61562841e-02, 2.12700441e-02,
       3.88058973e-03, 6.96383743e-03, -1.47546725e-02, -4.52342071e-03,
       -4.37529869e-02, 1.38387522e-02, 2.61763968e-02, -2.45762598e-02,
       -2.80707534e-02, -3.37603986e-02, 5.45975827e-02, 7.05865026e-02,
       1.67159252e-02, 1.42210140e-03, -1.30235031e-02, -7.41577335e-03,
       1.28368940e-03, 3.11433394e-02, 2.18693186e-02, 5.44369854e-02,
       3.99200767e-02, -2.65033972e-02, 1.38069289e-02, 2.18992494e-02,
       -9.66223609e-03, 2.11397582e-03, 6.57830685e-02, 6.57773241e-02,
       -2.42082011e-02, -7.08583510e-03, 1.35610038e-02, -1.90375019e-02,
       -1.15529774e-02, -3.02351406e-03, 4.75365343e-03, -2.83251284e-03,
       -4.37943414e-02, -2.28552558e-02, -2.77743991e-02,
       -4.59713303e-02, -4.05321904e-02, -1.78727973e-02,
       -2.58267559e-02, -9.72417090e-03, 1.47529803e-02, -3.29868048e-02,
       5.02841314e-03, 9.03476961e-03, -5.55828586e-02, -3.80557999e-02,
       -8.25678185e-03, 8.86816438e-03, 8.96556675e-03, 5.94510846e-02,
       5.81497513e-02, 3.12986746e-02, 2.26695854e-02, -1.38618415e-02,
       -2.82622948e-02, 2.34120209e-02, 1.74159128e-02, -1.97283961e-02,
       4.65603732e-02, 5.41024841e-02, -2.94798631e-02, -1.48069151e-02,
       -5.43622337e-02, -6.60212338e-02, 1.65104168e-03, -6.26739534e-03,
       6.42352877e-03, 5.51141910e-02, 2.88564782e-03, 3.61170284e-02,
       4.54071164e-02, -3.35627235e-02, -6.08769134e-02, 1.16074421e-02,
       9.68665909e-03, -2.43993625e-02, 2.43878905e-02, -1.55726355e-03,
       6.23183418e-03, -4.88035521e-03, -1.31923091e-02, -4.20558564e-02,
       -2.10461877e-02, 3.95502849e-03, -3.12165990e-02, 1.41201820e-02,
       5.55121377e-02, 4.07434553e-02, 2.45529134e-02, -1.80659220e-02,
       -1.37040569e-02, -2.09092218e-02, -3.01819537e-02,
       -4.08917069e-02, -8.82930763e-04, 2.06546988e-02, 1.13084773e-02,
       4.37296964e-02, -6.45529851e-03, -4.02708650e-02, -3.26726064e-02,
       1.15448926e-02, -2.45611034e-02, 4.85558398e-02, -9.23230499e-03,
       2.13494860e-02, 4.14232127e-02, -1.09288786e-02, -3.24811675e-02,
       -2.68563963e-02, -9.29548312e-03, -1.70792155e-02, 4.60067391e-02,
       -4.37117927e-03, 1.98229160e-02, 3.73326875e-02, -3.69239002e-02,
       -2.37496272e-02, -1.44484835e-02, -4.79449704e-02,
       -4.40337807e-02, -2.02959701e-02, -6.49517123e-03,
       -2.25524884e-02, 1.31183406e-02, -4.32920307e-02, -3.09027098e-02,
       -1.67228896e-02, -4.11133841e-02, -3.94555554e-02,
       -3.88172595e-03, 3.41930264e-03, 1.61292627e-02, 6.64734617e-02,
       -1.57939512e-02, -1.18391067e-02, -5.48644178e-03,
       -1.84181817e-02, -2.52494738e-02, 3.20126154e-02, -6.97684241e-03,
       3.53261381e-02, 3.38383578e-02, -3.04510612e-02, -3.01047601e-03,
       9.83265508e-03, -2.85876747e-02, -3.75224575e-02, 2.69586034e-02,
       6.48363866e-03, -4.29346636e-02, 1.21686952e-02, -1.01409946e-02,
       -1.63810756e-02, 1.37328710e-02, -8.11243244e-03, -3.63111831e-02,
       -1.66170411e-02, -2.37861276e-02, -2.34451648e-02, 2.01357249e-02,
       -1.53717073e-02, -1.06864953e-02, -1.15572559e-02,
       -2.53580064e-02, -4.50110175e-02, -9.68809519e-03,
       -1.84429679e-02, 2.80345827e-02, 4.85837124e-02, -9.22011863e-03,
       8.24038289e-04, 1.16478363e-02, -2.90572215e-02, -5.38412742e-02,
       3.28729935e-02, 6.29831385e-03, 6.19928837e-02, 7.27350786e-02,
       -1.50642780e-04, -2.43764501e-02, -1.29931141e-02,
       -5.04566841e-02, -2.93787010e-02, 5.05661890e-02, 3.26359570e-02,
       3.82130407e-02, 7.62065724e-02, 3.26958522e-02, 1.36360824e-02,
       1.21636307e-02, 3.68655100e-02, 2.50708908e-02, 5.29875420e-03,
       -3.88770393e-04, -3.11325956e-02, -9.51898471e-03,
       -1.00686215e-02, -5.57499342e-02, -3.42935286e-02,
       -6.50693253e-02, -2.36571766e-02, -2.52974182e-02,
       -5.86788207e-02, 4.96374480e-02, 9.58568305e-02, 6.13217354e-02,
       4.06993404e-02, 4.98774461e-02, 6.39717653e-02, 6.13372959e-02,
       9.09801498e-02, 3.25531326e-02, -1.09780906e-02, 1.39067667e-02,
       2.37590317e-02, -1.25035113e-02, 2.21650377e-02, 7.10067758e-03,
       -1.64610846e-03, 1.38194868e-02, -7.07838079e-03, 2.30412669e-02,
       2.44113104e-03, 2.26466134e-02, 2.15442851e-02, 3.88405621e-02,
       6.85067624e-02, 5.16592562e-02, 5.11560775e-02, 2.85445787e-02,
       -5.45231178e-02, -6.25399277e-02, -3.79910208e-02,
       -7.71151185e-02, -2.02986300e-02, -4.07930687e-02,
       -1.89362913e-02, -8.75422359e-03, -1.18643027e-02, 5.15096970e-02,
       6.03275150e-02, 5.71138561e-02, 6.74659386e-02, 1.01887651e-01,
       1.33969173e-01, 5.20851687e-02, 5.39650060e-02, 6.58260807e-02,
       -3.78257520e-02, -7.67215341e-02, -3.90557908e-02,
       -5.06169498e-02, 2.31363182e-03, -3.82291176e-03, -1.55536756e-02,
       -2.27150470e-02, 4.02974244e-03, -2.10717060e-02, -2.58887466e-03,
       2.19433345e-02, 1.52905483e-03, 3.98537377e-04, -5.12956548e-03,
       2.23218985e-02, 1.70065928e-02, -4.86628804e-03, -1.23789143e-02,
       -5.91345392e-02, 1.13655729e-02, 3.45298052e-02, 7.24919513e-03,
       2.01702514e-03, 1.52382907e-02, -3.72106917e-02, -1.54724752e-03,
       -3.03248130e-03, -2.37533804e-02, 5.66652650e-03, 2.78561562e-03,
       1.20012565e-02, 3.24282870e-02, 2.69038063e-02, 1.64494999e-02,
       1.63225811e-02, 2.47252714e-02, -3.40996347e-02, -1.27918087e-02,
       -1.91684347e-04, -3.87292588e-03, 2.09442063e-04, 8.98164976e-03,
       -4.81396616e-02, -1.18164644e-02, 8.47996399e-02, -1.75973643e-02,
       -3.42679471e-02, -5.63879795e-02, -2.58160252e-02,
       -1.62137337e-02, -3.53875160e-02, -3.03734299e-02, 4.00568098e-02,
       4.22662944e-02, -1.26823233e-02, 1.16496682e-02, 5.04912883e-02,
       4.18930463e-02, 6.65253475e-02, 6.42122701e-02, 2.40264218e-02,
       5.48393652e-02, 4.42087576e-02, -2.05513891e-02, -4.63405550e-02,
       -3.32843363e-02, -1.57776345e-02, -1.41964518e-02,
       -5.03541678e-02, -7.55303055e-02, 3.33504528e-02, 3.81054617e-02,
       -2.14946624e-02, -2.16680276e-03, 1.48332966e-02, 9.63712391e-03,
       1.70873851e-02, 1.88193060e-02, -8.57702922e-03, 3.93197946e-02,
       -8.44194889e-02, -3.90461534e-02, 2.61821412e-02, 5.82917668e-02,
       3.85569856e-02, 6.17454052e-02, 4.99292724e-02, -1.55983791e-02,
       -5.43557443e-02, 5.09200655e-02, 8.36175457e-02, 9.33501869e-02,
       5.45374788e-02, 3.82560305e-02, 5.67059480e-02, 4.19296622e-02,
       2.89554019e-02, -6.27315883e-03, -7.21975565e-02, -7.30643496e-02,
       -9.45991371e-03, 2.45881900e-02, 8.95405263e-02, 4.85926680e-02,
       6.08239621e-02, 4.35854634e-03, -3.46398056e-02, 1.12825271e-03,
       1.88382007e-02, 1.06317466e-02, 9.76505037e-03, 1.16230883e-02,
       4.45220843e-02, 9.34066102e-02, 7.15640858e-02, 2.62916479e-02,
       1.03326410e-01, 3.18807773e-02, 1.10660726e-02, -2.00991910e-02,
       -2.11892948e-02, -1.66397379e-03, 2.09117606e-02, 6.41549975e-02,
       8.03389326e-02, 1.39154466e-02, -2.85210903e-03, 6.45133555e-02,
       2.28763875e-02, 8.57750513e-03, 1.85070075e-02, 7.71031082e-02,
       8.15008208e-02, 2.86852494e-02, 7.08413869e-02, 6.51884750e-02,
       1.66398678e-02, -4.50195111e-02, -3.32943872e-02, 5.06427977e-03,
       3.65128256e-02, 1.92079451e-02, 3.99816781e-02, 8.09760392e-03,
       5.59647754e-02, 4.67456467e-02, -1.44035481e-02, 1.66101679e-02,
       1.47721609e-02, 2.48494539e-02, 2.03299876e-02, -1.00769652e-02,
       -2.81257927e-02, 4.89586182e-02, 6.93669170e-02, 7.48596936e-02,
       3.46360542e-02, 5.17823510e-02, 6.18506037e-02, 4.22125384e-02,
       -1.09675368e-02, -3.21149342e-02, -1.20260138e-02,
       -9.01731011e-03, -4.59680799e-03, -2.46950937e-03,
       -3.81501857e-03, -1.66356452e-02, -4.02460843e-02,
       -6.59937337e-02, -3.79680132e-05, 6.65258542e-02, 7.30611905e-02,
       5.17966896e-02, 4.20170985e-02, 7.70411491e-02, 8.05564895e-02,
       7.40335137e-02, -7.61198718e-03, -4.01309989e-02, -2.23672707e-02,
       3.12247146e-02, -2.32764278e-02, 1.05775204e-02, -1.11332955e-02,
       -2.66102254e-02, -3.63644622e-02, -5.13697229e-02, 1.51769444e-02,
       1.27275465e-02, 7.52009291e-05, 2.10319981e-02, -4.46167700e-02,
       2.57327706e-02, 1.83242280e-02, 1.21394806e-02, -3.17645818e-02,
       -2.44926452e-03, -3.05708628e-02, -1.23487590e-02,
       -1.72344446e-02, -2.09112447e-02, -3.34041156e-02,
       -3.27675119e-02, -3.78399491e-02, 1.58032253e-02, -1.56740639e-02,
       9.78285167e-03, 3.10381893e-02, 1.71041992e-02, -1.13582173e-02,
       8.91403761e-03, 3.27142910e-03, -1.15991328e-02, -2.09728666e-02,
       -2.51086373e-02, -1.39473926e-03, -9.67332907e-03,
       -1.33793103e-03, -5.48038678e-03, -4.91402820e-02,
       -4.91517782e-02, -2.73310319e-02, 1.11535527e-02, 2.46996228e-02,
       -9.40397367e-05, 1.05841104e-02, 7.74967810e-03, -4.69536870e-04,
       -1.77332200e-02, -3.50007266e-02, 2.56078504e-03, 4.72972356e-02,
       -1.53067010e-02, -3.38513292e-02, -8.63797404e-03,
       -2.59083649e-03, -2.92094368e-02, -2.87073832e-02, 1.16263153e-02,
       7.96400197e-03, -4.08111745e-03, 9.78574995e-03, 4.64925868e-03,
       1.86591633e-02, -2.66966247e-03, 3.45225050e-03, -1.25533808e-02,
       -1.11100599e-02, 1.17091080e-02, 3.14440541e-02, -2.15378404e-02,
       -1.26028778e-02, -8.78826249e-03, -3.19019891e-02,
       -3.69630679e-02, -1.22944675e-02, 2.77841017e-02, -1.27733648e-02,
       6.66580815e-03, -3.52976397e-02, -2.79378258e-02, 1.83384474e-02,
       1.89797357e-02, -2.48248857e-02, 3.53196263e-02, 2.02560518e-02,
       6.91197766e-03, -9.90171265e-03, -2.82250736e-02, -1.81611422e-02,
       3.34606729e-02, 1.24724954e-02, -2.74629844e-03, 2.73300670e-02,
       -1.06795225e-02, -4.63550203e-02, -5.86214066e-02, 5.87570528e-03,
       1.44992610e-02, 3.61862667e-02, 1.97406821e-02, -1.73888337e-02,
       1.47620626e-02, 3.15429494e-02, 8.30284599e-03, 1.09941268e-03,
       -2.91839540e-02, 7.83938542e-03, 1.03383828e-02, 2.07611360e-02,
       -2.94997077e-02, -1.77648012e-02, 8.12159618e-04, 4.19082446e-03,
       -1.61000155e-02, -1.76373441e-02, 4.84171417e-03, 4.07272987e-02,
       1.74429007e-02, -1.26748495e-02, 2.02930104e-02, 2.59273835e-02,
       -2.88856383e-02, -5.88429458e-02, -1.21379187e-02,
       -1.96158211e-03, -1.19218146e-02, 1.67161208e-02, 3.65503156e-03,
       1.89023428e-02, 4.99944808e-03, -2.23134458e-02, -4.06238735e-02,
       -3.57810892e-02, 1.53192440e-02, 2.15907656e-02, 1.05572473e-02,
       2.41984031e-03, 1.76185537e-02, 2.03492735e-02, 9.09249857e-03,
       -3.23352553e-02, -3.87149975e-02, -1.76127851e-02, 5.47349174e-03,
       2.21335310e-02, 9.16311983e-03, 5.30533120e-02, -4.33558319e-03,
       -9.04707052e-03, -3.19299251e-02, 3.81977297e-03, 2.60430248e-03,
       -3.34916897e-02, -4.37317938e-02, 1.67881453e-03, -1.55769670e-02,
       -6.28297031e-03, -7.63262389e-03, -1.75439566e-02, 5.40790372e-02,
       6.33516982e-02, 1.74497173e-03, -2.64074486e-02, 2.64906362e-02,
       -7.18057156e-03, -1.27739264e-02, 1.55374790e-02, 1.06807720e-05,
       -2.07397211e-02, -3.02223600e-02, -4.69142497e-02,
       -3.78857404e-02, -2.41371486e-02, -8.63619673e-04, 9.95249022e-03,
       3.33836824e-02, -4.07510735e-02, -1.18973432e-02, 5.43444511e-03,
       -4.73658293e-02, -3.34368907e-02, -1.44616021e-02,
       -4.06743139e-02, 2.25867908e-02, 5.52930459e-02, 1.36361150e-02,
       1.35433413e-02, 6.98761344e-02, 1.25551242e-02, -2.46483460e-02,
       1.47035625e-02, 1.80754550e-02, -1.30937174e-02, 2.05540136e-02,
       -4.06645313e-02, 6.10668305e-03, 5.93424141e-02, 1.05634397e-02,
       -4.10125479e-02, 9.40823182e-03, 5.16947219e-03, -2.48393808e-02,
       2.51935851e-02, -2.42699925e-02, -4.52461503e-02, -8.59785650e-04,
       -1.29599310e-02, -1.95679944e-02, 1.22512607e-02, -2.74968743e-02,
       2.63952762e-02, 5.97078688e-02, 1.10111460e-02, -1.33933472e-02,
       6.69925380e-03, -1.32422550e-02, -3.52832600e-02, 9.94589925e-03,
       -5.52409925e-02, -9.34432447e-03, 3.76328491e-02, 4.86868061e-03,
       1.37767300e-03, 6.53436556e-02, -1.14411572e-02, -1.06405569e-02,
       -5.56333037e-03, -7.28700589e-03, -1.09088272e-02, 2.11079195e-02,
       -2.75558718e-02, 1.89093519e-02, 4.50892597e-02, -4.06154580e-02,
       7.79433036e-03, 2.25235391e-02, -1.58856269e-02, -1.63172446e-02,
       4.18168865e-02, 1.91030919e-03, 1.79906767e-02, -3.46847344e-03,
       -2.25440934e-02, -2.13201530e-02, -1.86784957e-02,
       -3.90168391e-02, 1.03533212e-02, 7.46705607e-02, 3.62083055e-02,
       5.48710749e-02, 1.46214748e-02, -2.09610779e-02, -1.28816273e-02,
       1.65223274e-02, -3.90922911e-02, -1.48012508e-02, 2.82261297e-02,
       1.95172578e-02, 3.07466630e-02, 3.46731916e-02, -1.46289058e-02,
       6.88668992e-03, 9.92920343e-03, -1.68763399e-02, -3.77043746e-02,
       6.71464857e-03, 1.01772798e-02, 5.16839251e-02, 1.94508173e-02,
       -1.99097767e-02, -2.65195630e-02, -7.69120175e-03,
       -1.58234183e-02, 1.23762770e-03, 2.20367759e-02, 3.15041393e-02,
       4.65555154e-02, 1.80114955e-02, -3.94671597e-02, -1.11471713e-02,
       3.38880694e-03, -5.95626142e-03, -2.44224351e-02, 1.46034826e-02,
       1.23040453e-02, 6.20312290e-03, 1.56591665e-02, -3.50560024e-02,
       1.24511207e-04, 7.85856042e-03, -6.05900213e-03, 6.93209376e-03,
       3.62916104e-02, 3.80774997e-02, 3.48751619e-02, 2.44554318e-02,
       4.05912101e-02, 5.38255088e-02, 4.82397117e-02, 6.55226931e-02,
       4.26855385e-02, 4.06503864e-02, 4.51871864e-02, -1.11226430e-02,
       1.35451357e-03, 2.93226913e-03, -1.03682578e-02, 2.66791234e-04,
       5.01697185e-03, -5.36091486e-03, 2.29640701e-03, -1.32452194e-02,
       1.61736514e-02, 4.84669022e-02, 3.42238955e-02, 7.08504245e-02,
       2.31799819e-02, 2.96158083e-02, 5.13243675e-02, 4.60363068e-02,
       3.17699723e-02, -5.73154539e-03, 1.99316274e-02, 2.28505973e-02,
       1.85050461e-02, 3.48187201e-02, -2.57335529e-02, -1.60113610e-02,
       -6.70989975e-03, -3.51888165e-02, 4.55437973e-02, 3.75648811e-02,
       3.91418524e-02, 5.79384603e-02, 7.59385750e-02, 1.20582752e-01,
       5.77306561e-02, 2.84141693e-02, 6.09193183e-02, -4.46400307e-02,
       -8.06635097e-02, -2.20134165e-02, -1.24675864e-02,
       -9.31472983e-03, -2.06770413e-02, -1.07978312e-02,
       -5.32579310e-02, -3.26478966e-02, 7.59041309e-02, 6.69647381e-02,
       7.24184066e-02, 1.09965242e-01, 8.18938315e-02, 8.38827789e-02,
       5.57048470e-02, 3.12598422e-02, 5.08730114e-02, -3.14324535e-02,
       -5.34887910e-02, -7.60398712e-03, 1.13684230e-03, 1.64579619e-02,
       -3.01488601e-02, -6.99375430e-03, -6.69100210e-02,
       -1.91416126e-02, 1.20843779e-02, -2.07281373e-02, 5.10215061e-03,
       -3.51721328e-03, -9.33407340e-03, 3.75609808e-02, 3.21679600e-02,
       2.50713411e-03, 1.33228328e-04, 4.26356494e-02, -1.35811651e-02,
       -5.60870813e-03, -2.10042596e-02, -1.92821082e-02, 2.69707013e-02,
       -2.65128538e-02, -6.03014976e-02, -7.37691857e-03, 2.68717408e-02,
       1.11383218e-02, 3.26864570e-02, 1.92438345e-02, 1.44206202e-02,
       -4.26585926e-03, 3.03266924e-02, -4.37148921e-02, 2.97803450e-02,
       5.74361272e-02, -7.95900729e-03, 2.13569775e-03, -1.13184061e-02,
       -2.78348960e-02, 2.71496791e-02, -2.41711084e-02, -7.08689243e-02,
       3.95720527e-02, 3.28948610e-02, -2.56544985e-02, -1.87684949e-02,
       -2.22209394e-02, -8.10370035e-03, 1.08725997e-02, -2.94066481e-02,
       -7.47931898e-02, -3.40061523e-02, 1.25398757e-02, -1.36732822e-02,
       -3.71829118e-03, 1.36560751e-02, -2.75550727e-02, -1.25590926e-02,
       1.27873020e-02, -2.14556158e-02, 1.17247144e-03, 2.25431100e-02,
       -2.41684727e-04, -1.38742995e-04, -1.82368106e-03, 1.94878299e-02,
       3.98517065e-02, 9.42863896e-03, -3.13734375e-02, 3.58236744e-03,
       6.84869336e-03, 3.15631949e-03, 8.02444201e-03, -8.02790467e-03,
       -2.74627674e-02, -1.68491434e-02, 2.07274687e-03, -2.45595220e-02,
       3.16388160e-02, -2.19064895e-02, -3.97859700e-02, -2.53426395e-02,
       -2.22788285e-02, 3.00131496e-02, 2.17967629e-02, 6.86667860e-02,
       3.32302339e-02, 1.38797890e-02, 4.48504426e-02, 3.09646297e-02,
       -2.24498287e-03, 1.76956002e-02, 2.20720209e-02, 8.89263302e-02,
       9.06154066e-02, 8.35171044e-02, 5.79892658e-02, -2.49204356e-02,
       -3.76375280e-02, -2.05950923e-02, -2.48698927e-02,
       -1.38975133e-03, -4.53658216e-02, -8.66605621e-03,
       -1.42419655e-02, -2.24644020e-02, 1.27982665e-02, -2.50618700e-02,
       -4.40302305e-02, -1.74195087e-03, -5.29549271e-03, 3.96223292e-02,
       2.10787356e-02, -4.66306135e-03, 1.26643013e-02, 7.81389996e-02,
       5.84721081e-02, -1.23627707e-02, -4.58669066e-02, 2.18240963e-03,
       1.02866041e-02, -7.03839178e-04, -1.42203979e-02, 3.63420881e-02,
       6.19771779e-02, 1.08777635e-01, 5.49025349e-02, -2.71623004e-02,
       3.62740457e-02, 3.91172804e-02, 1.71196610e-02, 7.35646859e-03,
       7.92851858e-03, 7.86346011e-03, 9.44276992e-03, -3.35371606e-02,
       -4.96054515e-02, -3.24681252e-02, -3.51863950e-02,
       -2.29333490e-02, -5.02780378e-02, -1.20810475e-02, 2.65000947e-03,
       3.26580741e-02, 1.50456661e-02, -1.40205016e-02, 2.18546055e-02,
       3.35487165e-03, -2.93172002e-02, -5.55243604e-02, -4.85376194e-02,
       -1.20360199e-02, 5.14109023e-02, 1.59400124e-02, -3.82328518e-02,
       8.74169916e-03, 8.75110477e-02, 9.05601680e-02, 7.93045610e-02,
       -5.81034040e-03, -8.35302323e-02, -4.48589027e-02, 4.12182603e-03,
       -5.31502776e-02, -2.80274265e-02, 1.96139372e-04, 2.99780928e-02,
       1.89044010e-02, -2.11673342e-02, -3.26163657e-02, -6.73168761e-05,
       -1.12549141e-02, -4.27270867e-02, 3.72260902e-03, 8.43545943e-02,
       9.45201442e-02, 4.59316932e-02, -4.81244959e-02, -4.74335812e-02,
       -4.06275466e-02, -2.25436091e-02, -4.95484695e-02,
       -1.95238143e-02, -1.15847113e-02, 6.14982024e-02, 5.63915148e-02,
       -2.63640732e-02, -5.34910895e-02, -2.76000872e-02, 1.80190597e-02,
       2.15354771e-03, -9.63261630e-03, -3.19437198e-02, 6.32398296e-03,
       4.45121862e-02, 1.07675453e-03, -8.69360752e-03, 2.49617826e-03,
       1.87691674e-02, 1.88923266e-03, -7.06054503e-03, -2.24527568e-02,
       1.68873509e-03, 2.07188763e-02, 6.15444547e-03, -4.46332432e-03,
       -6.74589211e-03, 3.42849307e-02, -3.63998057e-04, 1.49259800e-02,
       7.98397884e-03, 3.55570838e-02, 1.21862411e-01, 1.10431397e-02,
       2.85062436e-02, -2.04422581e-03, 4.04428579e-02, -2.64401711e-03,
       3.32075804e-02, -1.75110274e-03, 1.14393383e-02, 3.54616605e-02,
       -1.23475743e-02, -6.05335319e-03, -3.69663676e-03,
       -3.50147067e-03, -2.10286919e-02, -3.04405689e-02,
       -2.24045217e-02, -1.26524698e-02, 2.07045954e-02, 4.34910133e-02,
       -8.32742825e-03, -2.27100644e-02, -5.70870982e-03,
       -3.57526354e-02, -3.32281925e-02, -2.63998192e-02, 1.52738523e-02,
       -8.23592581e-03, 3.04020033e-03, 5.18542901e-02, 5.27890585e-02,
       5.97966537e-02, 2.68820897e-02, -2.28248537e-02, -8.01373459e-03,
       8.97298660e-03, 5.20320758e-02, 3.38123515e-02, 2.49996148e-02,
       1.43957939e-02, 3.64793651e-02, 2.10943092e-02, 1.96595248e-02,
       1.38860953e-03, 2.23002993e-02, 5.00698425e-02, 1.00907199e-02,
       5.63891837e-03, 5.86297140e-02, 2.57487036e-02, 1.58491302e-02,
       8.46611895e-03, -2.61424313e-04, 5.50828781e-03, 1.03694573e-02,
       1.91649646e-02, -4.77665849e-02, -3.03304866e-02, -3.14099006e-02,
       -2.94161309e-02, -2.32132524e-02, -2.92773973e-02,
       -2.49385834e-02, 2.05171928e-02, -1.45402760e-03, 6.59074113e-02,
       4.27028947e-02, 2.15642285e-02, 1.22885369e-02, 3.05689890e-02,
       2.24815146e-03, 2.44830921e-02, 4.88908961e-02, 3.18129323e-02,
       -1.61652006e-02, -2.88649858e-03, 3.18543240e-02, -1.64635237e-02,
       1.01050809e-02, -1.28384577e-02, 3.20766028e-03, 6.04389496e-02,
       4.37998809e-02, -4.77670319e-02, -1.32510047e-02, -1.30764339e-02,
       -1.43000698e-02, -3.70860212e-02, 3.59789189e-03, -1.63022168e-02,
       2.13371124e-02, -3.55188991e-03, 1.42013468e-03, 1.43023254e-03,
       -8.88383947e-03, -3.57049285e-03, -2.17686146e-02, 1.73704289e-02,
       -4.06442285e-02, -9.70298238e-03, -2.19360050e-02, 1.20378863e-02,
       2.66634617e-02, 6.06036838e-03, 2.36642919e-02, 1.41433589e-02,
       -1.02355126e-02, -2.40237918e-03, 8.03843439e-02, 6.44252822e-02,
       4.05361019e-02, 6.37765750e-02, 9.65756830e-03, 1.14914784e-02,
       2.30667368e-02, 1.38464291e-02, -2.51335781e-02, 4.15263101e-02,
       4.03758697e-02, 5.82017265e-02, 2.53062099e-02, 8.44096672e-03,
       -1.09072980e-02, -1.71215180e-02, 1.24214124e-02, -3.48348804e-02,
       8.75686575e-03, -4.64101974e-03, 2.31341571e-02, 8.43143556e-03,
       -2.08022613e-02, -1.06721632e-02, 1.06291352e-02, -1.03641411e-04,
       -2.88848542e-02, -3.24943598e-04, 1.05003864e-02, 3.88964042e-02,
       3.07432879e-02, 1.32250637e-02, -1.89296547e-02, 1.64851232e-03,
       -7.25565571e-03, -3.52473706e-02, 1.01575209e-02, 1.77883673e-02,
       2.39862669e-02, -1.59382331e-03, -3.37160975e-02, 7.61218648e-03,
       1.47602763e-02, -4.84132627e-03, -3.76764610e-02, -1.36591299e-02,
       1.75785981e-02, 6.22776151e-03, 2.77159885e-02, 1.99796353e-03,
       -1.38972653e-02, -4.15799096e-02, -1.49809625e-02,
       -1.52390664e-02, 4.94642183e-03, 2.38261353e-02, 3.13673466e-02,
       8.34483560e-03, -8.41463509e-04, -1.33299343e-02, -1.66596156e-02,
       -3.82973179e-02, -5.79036633e-03, 1.57850608e-02, 2.45244522e-02,
       5.23459539e-02, 2.60143429e-02, -2.45638974e-02, -1.93039719e-02,
       -1.04616340e-02, -1.94565877e-02, -2.37851553e-02,
       -2.34528631e-02, 1.91468298e-02, -3.95130570e-04, -2.90832459e-03,
       -2.26916317e-02, -3.75938676e-02, -1.54355951e-02,
       -5.50062284e-02, -2.54162382e-02, -2.49268184e-03, 3.35276965e-03,
       4.94750515e-02, 1.16318408e-02, -2.43134075e-03, -2.60517653e-02,
       -2.17788126e-02, -4.00704965e-02, 9.58989095e-03, 4.22211252e-02,
       3.07482500e-02, 2.93033086e-02, 2.80482154e-02, 7.97514524e-03,
       -2.87717637e-02, -2.25498836e-04, -1.40342126e-02,
       -1.61972884e-02, 2.49310397e-03, -7.36385491e-03, -2.44459952e-03,
       -1.61677203e-03, -2.26579346e-02, -5.21392263e-02,
       -1.13685406e-03, -1.47030726e-02, -1.08980602e-02, 6.53757760e-03,
       -8.45601037e-03, -2.61679888e-02, -1.05306115e-02,
       -2.99482998e-02, -2.80364063e-02, 2.06031743e-02, 6.47608796e-03,
       -4.04082984e-02, -1.29746012e-02, -3.89184281e-02, 3.16141210e-02,
       5.36279976e-02, -1.68555565e-02, -2.25749761e-02, -5.11304010e-03,
       1.32105416e-02, -1.87315810e-02, 2.72844415e-02, 2.13786289e-02,
       9.57499631e-03, 3.77769247e-02, -3.98510173e-02, 1.17695541e-03,
       1.97442994e-02, -8.93253833e-03, -3.92497568e-05, 5.05346805e-02,
       2.59135198e-02, -1.21755339e-02, -2.51439940e-02, -4.98180836e-02,
       -3.45754772e-02, -8.62016995e-03, 1.23901572e-03, -3.31395604e-02,
       -4.22099978e-03, -1.47272088e-02, -3.53333950e-02,
       -2.70237662e-02, -4.64421809e-02, -2.78878864e-02,
       -1.67023186e-02, -6.61755726e-02, -6.36128858e-02,
       -2.97474619e-02, -9.74462461e-03, 2.64054798e-02, 7.31771067e-02,
       3.74148600e-02, 7.57256374e-02, 4.56352606e-02, 5.42291477e-02,
       7.76962861e-02, 8.31474215e-02, 6.02313466e-02, 9.31553543e-03,
       3.14919725e-02, 2.37080622e-02, 3.01383641e-02, 2.21329331e-02,
       1.81200413e-03, 5.68209738e-02, 2.25075334e-02, -4.28772345e-03,
       -1.08478796e-02, 1.02745648e-02, 1.10944770e-02, 1.57944821e-02,
       -2.98430491e-03, 4.09120182e-03, 1.71957444e-02, 2.62469463e-02,
       1.01215094e-02, -2.46307440e-02, -2.58175414e-02, -2.49452982e-02,
       -7.69297779e-02, -4.24010493e-02, -4.40480225e-02, 8.50453693e-03,
       -2.40021590e-02, -3.97926457e-02, 3.38793918e-02, 6.30617514e-02,
       7.14012906e-02, 1.04550630e-01, 9.56988558e-02, 8.24982598e-02,
       6.76338375e-02, 2.78022736e-02, 3.74476425e-02, -4.41820547e-02,
       -3.86365280e-02, -4.18262836e-03, -2.81749712e-03, 1.50417443e-02,
       -3.91687602e-02, -1.45186353e-02, -6.72135726e-02,
       -3.76922600e-02, 4.05846462e-02, 5.39421104e-02, 7.45462999e-02,
       5.20854704e-02, 6.57297298e-02, 3.26774679e-02, 3.45427357e-02,
       -1.48215061e-02, 7.59540452e-03, -2.31640749e-02, -2.57828087e-02,
       1.84505396e-02, -1.70580428e-02, 1.76517256e-02, -2.07243729e-02,
       -4.10350375e-02, -6.86235502e-02, -4.15260606e-02,
       -1.07540125e-02, -1.01266643e-02, 2.14134920e-02, -3.18362913e-03,
       5.86425234e-03, -6.78780535e-03, 2.35248581e-02, -3.81108820e-02,
       -5.91552537e-03, 9.72516369e-03, -1.07637038e-02, 2.13089138e-02,
       -3.25734653e-02, -1.28809968e-02, 1.17271878e-02, -1.83687769e-02,
       -7.21760541e-02, 1.94462072e-02, 4.00208728e-03, -1.10102573e-03,
       3.04679740e-02, 2.28294334e-03, -1.76024102e-02, 3.19871828e-02,
       1.96857881e-02, 7.30174268e-03, -1.14379998e-03, 7.54734874e-03,
       -2.51993304e-03, 4.38647084e-02, -1.31112002e-02, -1.77744478e-02,
       6.36270270e-02, 2.03896128e-02, -6.04479574e-02, -1.00526949e-02,
       3.25893201e-02, -8.85977875e-03, 2.34560836e-02, 1.99792348e-02,
       -3.72486771e-03, 1.56124514e-02, 1.56893407e-03, -2.37269066e-02,
       3.35994828e-03, 1.47960102e-02, 9.32761468e-03, 1.00506386e-02,
       -2.27859654e-02, -1.19058285e-02, -1.86619461e-02,
       -1.06707192e-03, -2.90944204e-02, 9.20822285e-03, -1.22933229e-03,
       -4.93310988e-02, -6.12021610e-03, 3.27125788e-02, -2.01909430e-02,
       7.51672219e-03, 2.63670217e-02, 1.37342364e-02, 3.71032767e-02,
       1.78501531e-02, 1.18346671e-02, 1.05931638e-02, -1.60900857e-02,
       1.83326080e-02, 8.83218646e-03, 2.98701189e-02, 1.60804056e-02,
       3.55830416e-02, -1.03711532e-02, -3.27320397e-02, -1.92661639e-02,
       -2.90315272e-03, -5.02245617e-04, -8.37546214e-03, 8.67598783e-03,
       -2.70503052e-02, -1.78297330e-02, 4.36855108e-02, -2.89192121e-03,
       -7.04849698e-03, 7.85121880e-03, 4.38776752e-03, 1.51624680e-02,
       1.10044526e-02, -1.97529271e-02, 1.49277514e-02, 1.59374252e-02,
       2.49999464e-02, -4.08925302e-03, 7.07010459e-03, -3.56165529e-03,
       -9.39561520e-03, 4.62149410e-03, -3.74524016e-03, 1.14872986e-02,
       1.70499831e-02, 3.84653211e-02, 3.41503099e-02, 3.11419852e-02,
       8.32147372e-04, 7.30950572e-03, 2.00124062e-03, 5.89110283e-03,
       3.00429277e-02, 2.53962055e-02, 1.13618579e-02, -2.16314755e-02,
       -3.64401937e-03, -1.05003472e-02, -1.37941549e-02, 9.15612653e-03,
       1.63857937e-02, 2.10390165e-02, 1.74730644e-02, 6.37807474e-02,
       2.06020642e-02, 1.95750035e-02, 1.73389148e-02, -1.46231633e-02,
       -7.98370130e-03, -4.13660798e-03, -1.62972547e-02, 3.60447466e-02,
       1.39604397e-02, -5.48217120e-03, 9.33240633e-03, 1.19711719e-02,
       -1.16737066e-02, 4.27831104e-03, 1.04607847e-02, 3.52615677e-02,
       4.87385653e-02, 3.74285281e-02, -6.23342581e-04, 6.44555874e-03,
       2.26163156e-02, -3.32648754e-02, -1.46611193e-02, -5.49919205e-03,
       3.29904109e-02, -1.02835950e-02, 3.28375138e-02, 1.64186526e-02,
       8.61856621e-03, -5.68066398e-03, 1.48152029e-02, 4.44521904e-02,
       1.29997293e-02, -2.08635610e-02, -1.28100896e-02, -4.64970851e-03,
       3.88026191e-03, -4.99282172e-03, 1.87076302e-03, -3.63956264e-04,
       2.67885495e-02, 5.20428792e-02, -1.47250211e-02, 1.88552197e-02,
       1.66778564e-02, 1.88558437e-02, 2.23259088e-02, 1.92898978e-02,
       -7.15395762e-03, -3.11198812e-02, -2.68182829e-02,
       -7.75604742e-03, -8.72093253e-03, -2.10908297e-02, 1.18958100e-03,
       -1.39172934e-02, -1.79675675e-03, -5.13637997e-03,
       -4.79142778e-02, -3.85200381e-02, 1.37625942e-02, -8.09922908e-03,
       -6.33907132e-03, 8.99234693e-03, -6.81323872e-04, 2.41062716e-02,
       -7.81089591e-04, -1.66246109e-02, 7.52432644e-02, 3.34772170e-02,
       7.69426208e-03, 1.76952854e-02, 8.89081880e-03, -2.64926755e-04,
       2.86158863e-02, 1.33284805e-02, -6.02214076e-02, 3.52023430e-02,
       -7.57619180e-03, -2.24144440e-02, 8.23693629e-03, 1.51560390e-02,
       7.43967947e-04, -5.74945647e-04, -3.64626050e-02, -3.09009980e-02,
       6.12697424e-03, 2.45322213e-02, -5.55135868e-03, 4.99690091e-03,
       -3.38707045e-02, -2.45179031e-02, 5.47488546e-03, -5.00608906e-02,
       -7.06559047e-02, -1.53231258e-02, 1.94678176e-02, 1.03010433e-02,
       5.35742231e-02, 4.44005318e-02, 3.98800410e-02, -9.55055875e-05,
       6.41141413e-03, -2.42656730e-02, 4.61795591e-02, 4.05488797e-02,
       -1.33635779e-03, 7.88769312e-03, 2.79596671e-02, 2.27137078e-02,
       1.99871026e-02, 2.79302318e-02, 1.15231881e-02, 2.62362454e-02,
       9.13185906e-03, 3.47993411e-02, 2.47885641e-02, -2.56171823e-02,
       -1.61369294e-02, 2.25322079e-02, 4.96856682e-03, -3.69878709e-02,
       1.66092422e-02, 1.03617460e-02, 1.45145692e-02, -2.08054809e-03,
       -3.06998119e-02, -2.62905564e-02, 2.84071341e-02, 1.50820678e-02,
       -1.17418971e-02, 5.25871478e-03, 2.39260364e-04, 1.27932392e-02,
       2.55951341e-02, 1.18106781e-02, 2.34816801e-02, 2.08038818e-02,
       4.89847250e-02, 1.43408366e-02, 2.54724175e-02, 6.04064763e-03,
       -1.17683224e-02, 1.51122641e-02, 2.46488154e-02, -2.02448992e-03,
       1.49323856e-02, -4.72176773e-03, 6.66378858e-03, 3.31815146e-02,
       2.06083115e-02, 4.61417548e-02, 2.58155596e-02, -9.25182831e-03,
       -6.80684298e-03, 8.05228204e-03, 2.08120663e-02, -1.50340125e-02,
       3.68122896e-03, 1.48323895e-02, 1.17093725e-02, -7.39804655e-03,
       -4.90025338e-03, -1.92424841e-02, 2.58772802e-02, -2.63513513e-02,
       -6.01914851e-03, -4.69943974e-03, -2.84966920e-02,
       -8.56994092e-03, 2.54711378e-02, 3.55143808e-02, 5.55032790e-02,
       3.32596824e-02, 1.83576085e-02, -5.20803872e-03, 3.67382504e-02,
       3.87815200e-02, 2.58266181e-02, 2.85320058e-02, 2.57801041e-02,
       2.61250548e-02, 2.58632749e-02, 1.94952693e-02, -2.05994286e-02,
       1.94691643e-02, -1.28553966e-02, -1.55109505e-03, 1.42280608e-02,
       1.88437977e-03, -1.90930627e-02, -7.51309330e-03, 7.34774489e-03,
       1.62064247e-02, -1.61129551e-03, -1.77427847e-02, -1.15973279e-02,
       -6.99530309e-03, 1.32069765e-02, -1.35919796e-02, 1.86270680e-02,
       -4.39759251e-03, -1.25649653e-03, -2.31297803e-03,
       -8.62338766e-03, 1.07043888e-02, 3.07259383e-03, 2.98432522e-02,
       4.10005637e-02, -2.92549026e-03, 3.70747820e-02, -1.31520699e-03,
       4.78715226e-02, 1.09984940e-02, 1.25626363e-02, -6.04913617e-03,
       -9.45915189e-03, 5.00210002e-02, 2.62979083e-02, 4.94786762e-02,
       3.10228486e-02, 1.54342139e-02, -6.54114876e-03, 1.45853152e-02,
       -1.38468780e-02, -7.85815995e-03, 3.51799605e-03, -1.92684699e-02,
       1.24894045e-02, -2.93084122e-02, -4.40191157e-04, 2.18665395e-02,
       -9.26451012e-03, -4.37072255e-02, -2.13408619e-02,
       -6.48637675e-03, -2.15708185e-03, -1.05669862e-02,
       -3.06152701e-02, -7.37351505e-03, 7.32036913e-03, -7.54552940e-03,
       1.61502585e-02, 1.26002368e-03, 3.74364182e-02, -1.52509296e-04,
       1.68553852e-02, 2.19493695e-02, 1.80337280e-02, -3.51199135e-02,
       -3.13830711e-02, -1.18432641e-02, -1.34632392e-02, 1.22722806e-02,
       -2.63741729e-03, 1.10002691e-02, 1.70652457e-02, 3.90889570e-02,
       -3.94505709e-02, -1.64031389e-03, -1.33528439e-02, 1.99825540e-02,
       1.02540972e-02, -4.75546345e-03, -1.83847398e-02, -2.97045131e-04,
       -6.93053799e-03, -2.50451965e-03, -7.32597476e-03, 8.65749270e-03,
       -1.34204701e-02, -2.74967086e-02, -2.34466046e-03, 2.25289948e-02,
       1.69176515e-02, 1.10112950e-02, -3.43052261e-02, -7.71990628e-04,
       2.97335163e-02, 4.22655884e-03, 1.60638914e-02, 4.09239531e-02,
       6.14056811e-02, 1.54876038e-02, 4.55736406e-02, 1.82038266e-02,
       -2.30932552e-02, -1.81875452e-02, -4.75273142e-03, 1.81008261e-02,
       1.34426001e-02, 4.45601679e-02, -8.70603789e-03, 1.52789261e-02,
       -4.45080362e-03, 1.99833866e-02, 4.61459532e-02, -1.29380981e-02,
       1.04874214e-02, 2.76095662e-02, 4.03564237e-02, 8.56180908e-04,
       2.38011237e-02, 7.12877896e-04, -3.23739536e-02, -8.59243143e-03,
       -5.47253266e-02, -1.66061632e-02, 8.88209417e-03, 4.51016836e-02,
       -6.61147013e-03, 1.83010921e-02, -2.03054845e-02, 6.80604659e-04,
       7.95690902e-03, -8.31511058e-03, 3.32082435e-02, 1.71561707e-02,
       3.49721089e-02, 2.76266560e-02, 3.53247747e-02, 4.40467931e-02,
       2.72608525e-03, 8.91351048e-03, 2.23687906e-02, 4.20505963e-02,
       -1.06136687e-02, 8.96952290e-04, 2.36386731e-02, 1.91192012e-02,
       1.35559887e-02, 2.82122777e-03, -5.48980152e-03, -2.93288101e-02,
       1.02924528e-02, 1.80763903e-03, 1.17177730e-02, 2.05463618e-02,
       1.70301218e-02, 2.03741882e-02, -2.52716076e-02, -2.00116951e-02,
       -1.03119910e-02, -2.30530114e-03, -5.32831773e-02,
       -2.77509596e-02, -8.25807860e-04, -1.23576261e-02,
       -2.46834941e-02, 2.34699715e-03, 3.77964824e-02, 4.88449521e-02,
       5.85862435e-02, 5.18015362e-02, 7.23000839e-02, 5.13640419e-02,
       -4.00596112e-03, 1.66585110e-02, 9.21640079e-03, 2.11405307e-02,
       1.45457909e-02, 4.59390879e-03, -9.94287152e-03, 3.98371601e-03,
       3.93949524e-02, -7.00626383e-03, -2.10191379e-03, 8.43689684e-03,
       1.90402810e-02, -5.92282508e-03, 7.40315020e-03, -1.79443210e-02,
       5.79936132e-02, 2.95235459e-02, -7.55025446e-03, -4.66846069e-03,
       -5.01136668e-03, -7.29463901e-03, -4.17583175e-02,
       -1.43902404e-02, -4.34520915e-02, 1.07056985e-03, 2.01556436e-03,
       -3.20861372e-03, -4.37725894e-02, 5.33637926e-02, 5.19092642e-02,
       5.15108034e-02, 2.97449529e-02, 5.45318762e-04, 1.52547592e-02,
       3.26544605e-02, 5.33523504e-03, 3.80938165e-02, -1.57672726e-02,
       -2.83390917e-02, 7.95890205e-03, -7.94118177e-03, 1.00889511e-03,
       -1.50783071e-02, -3.08705736e-02, -5.05005419e-02,
       -5.09244237e-05, 2.45349575e-02, 1.40194539e-02, 2.20482666e-02,
       1.91984177e-02, -1.83770638e-02, -4.42249421e-03, 2.35446244e-02,
       2.58302726e-02, 1.50999092e-02, 1.03615280e-02, -1.68113895e-02,
       1.47453379e-02, -1.76790487e-02, 1.50274327e-02, -1.22444204e-03,
       8.19161907e-03, -1.00524724e-02, 3.60486098e-02, -3.79083864e-02,
       -4.02288958e-02, 2.99656112e-03, -8.31734948e-03, -1.28203426e-02,
       3.70445997e-02, 2.63745040e-02, -2.26969142e-02, 3.21907853e-03,
       -1.98058635e-02, -6.32376522e-02, 1.35767309e-03, -2.73224507e-02,
       -4.91269864e-02, 2.13549417e-02, 1.72900707e-02, -5.80313057e-02,
       9.78877489e-03, 1.66326258e-02, -1.14983805e-02, 2.72256099e-02,
       -2.89431289e-02, -3.20020062e-03, 1.99547000e-02, 1.55159580e-02,
       1.32207163e-02, 5.92301600e-02, 5.01344390e-02, -4.62417006e-02,
       1.32503724e-02, -1.67316422e-02, 3.67687579e-04, 2.46852525e-02,
       -6.33085985e-03, -4.52379175e-02, 3.35432552e-02, 7.97302183e-03,
       -3.91532369e-02, -1.13384482e-02, 3.39221135e-02, -4.28263061e-02,
       3.05283479e-02, 1.38504086e-02, -2.14919411e-02, 5.80789819e-02,
       -4.63162258e-04, -1.08776679e-02, 4.75525297e-03, 1.76181563e-03,
       3.88694853e-02, 4.40881178e-02, 6.68510748e-03, -1.36709223e-02,
       5.02739847e-02, 2.34260317e-02, -2.18331087e-02, 3.02451774e-02,
       -1.50882744e-03, -6.92921877e-02, -1.22843608e-02,
       -2.39220243e-02, -4.07788269e-02, 2.53865059e-04, 2.14926526e-02,
       -1.50802918e-02, 1.37476325e-02, 3.21258120e-02, 5.86408079e-02,
       -1.30817918e-02, -1.51301865e-02, 1.52499722e-02, 4.05315310e-02,
       -2.19874061e-03, 3.63982283e-04, -2.20454354e-02, -1.36035606e-02,
       -2.05729436e-02, -3.75118759e-03, 1.55860847e-02, 1.84274167e-02,
       1.40589532e-02, 2.05147061e-02, 7.66669819e-03, -2.52700355e-02,
       -5.34318038e-04, -1.40339863e-02, 1.90975214e-03, -6.34783573e-05,
       2.64666509e-02, 2.37798914e-02, 4.94314916e-02, 2.75715021e-03,
       3.39050554e-02, 2.32755784e-02, 3.56186479e-02, -2.78419908e-03,
       1.85232162e-02, 1.75801888e-02, 3.72191742e-02, 5.73795848e-03,
       2.01977510e-02, -1.09979501e-02, 7.59305898e-03, 5.53545207e-02,
       1.47445202e-02, 1.51713416e-02, 3.11750639e-02, 4.24481705e-02,
       1.61433294e-02, -1.37971547e-02, -1.25508215e-02, -4.21433710e-03,
       -3.86957638e-02, -1.63712315e-02, 9.00425203e-03, 9.53779649e-03,
       1.51392464e-02, 2.83699837e-02, 3.86002921e-02, 2.71928795e-02,
       1.01164309e-02, 4.67874110e-03, -6.96872966e-03, -6.27209339e-03,
       2.12051217e-02, 2.85799634e-02, -1.66654307e-02, 1.02493474e-02,
       -8.13603308e-03, 9.23664216e-03, 4.77871485e-02, 1.69106927e-02,
       1.06431553e-02, 1.41842151e-03, -8.14272650e-03, -1.54077355e-02,
       4.27272357e-02, 2.06463765e-02, -3.60638159e-03, 2.22836789e-02,
       -1.94377708e-03, 3.56845334e-02, 3.73524614e-02, 1.45767620e-02,
       -1.79204140e-02, -2.20218133e-02, 1.82984136e-02, 1.33460108e-02,
       1.46615226e-02, 9.03922599e-03, 3.02095292e-03, 1.91560406e-02,
       7.83063378e-03, -5.76217510e-02, -1.41150048e-02, 3.51543515e-03,
       -1.60143673e-02, -6.03653863e-03, 4.42820229e-03, -5.74624212e-03,
       -1.16237206e-02, -9.51848645e-03, -2.10482907e-02, 8.74466356e-03,
       2.45911237e-02, 2.76485109e-03, -1.17726913e-02, 3.56211979e-03,
       3.07515860e-02, 5.73467799e-02, -9.67740256e-04, 9.62693739e-05,
       1.06346896e-02, 1.26706716e-02, -3.79864662e-03, -1.87213905e-02,
       7.42877088e-03, 6.66158320e-03, 7.31455116e-03, -1.61441993e-02,
       -3.81443799e-02, 1.23368753e-02, 4.99688601e-03, 1.34096146e-02,
       -1.14022009e-02, 1.79381110e-03, -3.78341647e-03, 4.92360722e-03,
       -7.35174166e-03, -2.06870548e-02, 1.60567500e-02, -5.55510027e-03,
       -5.54966088e-03, -1.49001395e-02, 5.61042177e-03, -1.08635603e-02,
       6.20301114e-04, -5.14791459e-02, -5.32181188e-03, 1.09757995e-02,
       5.63712465e-03, 1.50857139e-02, -3.40649970e-02, 1.69407611e-03,
       -2.04590745e-02, -1.39295112e-03, -2.50230040e-02, 1.26204488e-03,
       -1.48841152e-02, -3.71788032e-02, -4.60170209e-02, 2.40818155e-03,
       -2.76771840e-02, -2.34114286e-02, -2.91581713e-02,
       -2.65121832e-02, 1.21712999e-03, 3.58002000e-02, 3.56968562e-03,
       1.19134886e-02, 1.40330754e-02, 3.73432525e-02, -1.47844292e-02,
       -1.11151277e-03, -2.23185145e-03, -1.16489409e-02,
       -3.42022218e-02, -2.64913216e-02, -1.27367591e-02, 5.40738516e-02,
       3.02345473e-02, -6.11421932e-03, 2.94859502e-02, -1.26666557e-02,
       1.18391018e-03, 7.64150918e-03, -1.44496921e-03, 6.77858153e-03,
       9.54845920e-03, 4.67437925e-03, -4.11874950e-02, -1.89191569e-02,
       -2.68251076e-02, -1.64575726e-02, -9.80557874e-03,
       -2.01776195e-02, 6.29600836e-03, 1.30728632e-02, -2.19746004e-03,
       -4.46306132e-02, -2.35774107e-02, -1.88474264e-02, 2.37933658e-02,
       2.30038911e-02, 1.08972136e-02, 3.26335542e-02, 1.73425972e-02,
       5.00104018e-02, 2.06419826e-02, 2.21558399e-02, 2.96394918e-02,
       1.31816352e-02, 1.83144975e-02, 5.91287017e-03, 3.39931366e-03,
       7.00083328e-03, -3.07250377e-02, 2.03530509e-02, 5.56369126e-03,
       -3.10937893e-02, 2.40779538e-02, 2.70658843e-02, 8.54268949e-03,
       2.64855288e-02, -2.79930886e-02, 2.37971172e-02, -1.47026693e-02,
       -1.56229855e-02, -1.18843876e-02, -3.26013938e-02,
       -1.68139674e-02, -4.80112135e-02, -5.63475676e-02,
       -1.21361940e-04, -5.75778633e-02, -9.22516733e-03,
       -2.41505951e-02, -4.12624367e-02, 2.33903937e-02, 4.99434508e-02,
       1.75564047e-02, 7.63418153e-03, 1.67827848e-02, 4.17868383e-02,
       6.11391552e-02, 3.77851091e-02, -2.11322792e-02, -9.67635680e-03,
       3.15310992e-02, 5.50048752e-03, 7.84203224e-03, -2.69560516e-02,
       1.17594907e-02, 3.95291857e-03, 1.47371264e-02, 1.49145850e-03,
       -1.33195752e-02, 7.04584504e-03, -1.07264342e-02, -2.65165754e-02,
       2.92215459e-02, 1.90419443e-02, 2.16690674e-02, 2.06743553e-03,
       -1.05370092e-03, 1.10628409e-03, 1.54040447e-02, -1.21654989e-02,
       -1.10884132e-02, -5.48799522e-03, -5.24657220e-03, 2.58497032e-03,
       -1.70405488e-02, -4.90995962e-03, -2.00950187e-02, 7.57262949e-03,
       2.06156764e-02, 1.23438248e-02, -4.24753241e-02, 4.77304496e-03,
       -2.10358705e-02, -2.08969158e-03, -8.14778730e-03,
       -2.80587412e-02, -8.88457708e-03, -6.59869378e-03, 1.43938484e-02,
       6.56575710e-03, 3.81693174e-03, -1.47393374e-02, -4.94210143e-03,
       -2.09544934e-02, 1.59745701e-02, 2.35413071e-02, -3.87088321e-02,
       -2.23635752e-02, 3.73652577e-03, -1.08704399e-02, -7.58156274e-03,
       1.45497220e-03, 4.67843376e-03, 1.13684852e-02, 3.26738991e-02,
       -2.69340910e-02, -3.28465253e-02, 4.28847298e-02, 7.67031824e-03,
       -2.03603934e-02, -4.10700105e-02, 1.40989954e-02, 1.00959111e-02,
       5.60424617e-03, -9.73226596e-03, 2.41004955e-02, 1.36126308e-02,
       2.75483169e-02, -1.12364732e-03, -5.91012975e-03, -1.34928813e-02,
       2.03882195e-02, 4.65164222e-02, -9.19939112e-03, 5.53166540e-03,
       -1.92179694e-03, 1.89905316e-02, -1.08660255e-02, -1.62626132e-02,
       -4.73386347e-02, 2.62370426e-02, 6.27811905e-03, -4.56375927e-02,
       -2.92067602e-02, 2.02960316e-02, -3.67251807e-03, -4.40015458e-02,
       -3.24212201e-02, -5.28351730e-03, -6.97160023e-04,
       -6.22001151e-03, -5.13566062e-02, -2.88704224e-02, 1.89003050e-02,
       -1.65138133e-02, -6.05876148e-02, -1.44876344e-02,
       -1.75353531e-02, 4.81164828e-02, 3.30513716e-02, -3.27939168e-03,
       3.02563719e-02, 2.69752815e-02, 3.84645201e-02, 1.17066661e-02,
       -8.61496292e-03, 6.55913167e-03, -3.28163393e-02, -8.27285182e-03,
       -2.50394940e-02, 2.03828607e-02, -8.05954076e-03, 3.75293531e-02,
       4.36875550e-03, 9.06273606e-04, -1.24980928e-02, 2.33632997e-02,
       6.10747049e-03, -3.64513732e-02, -1.48510430e-02, 2.47783624e-02,
       9.20157507e-03, -4.14188132e-02, 5.74610755e-03, 1.68005675e-02,
       -2.02339236e-02, -4.84180683e-03, -1.06752086e-02, 2.20304262e-03,
       -2.66237324e-03, 9.62294079e-03, -1.56992935e-02, 9.94918495e-03,
       -9.25886724e-03, 1.87039487e-02, 8.39328580e-03, -2.09910003e-03,
       2.01062057e-02, -7.70901097e-05, 3.32665332e-02, 7.13068014e-03,
       2.37137992e-02, 4.59271669e-02, -1.14068678e-02, 9.21442267e-03,
       9.99627542e-03, -1.52471466e-02, -6.37101904e-02, -1.89207755e-02,
       -4.51032668e-02, -5.62277855e-03, -3.57099026e-02, 9.48545709e-03,
       2.15810072e-02, 2.08130572e-02, -1.01110088e-02, 5.56832366e-03,
       4.69822325e-02, -2.38789478e-03, 4.39405702e-02, 9.20772646e-03,
       -7.21926196e-03, 2.47615743e-02, -8.19195341e-03, 9.94673464e-04,
       -3.87906544e-02, -1.06719686e-02, -4.12048623e-02,
       -8.12753849e-03, -2.10030545e-02, -2.14165146e-03, 3.40391211e-02,
       7.88926985e-03, 1.63009185e-02, -1.16085894e-02, 3.74423936e-02,
       -1.28359320e-02, -2.43360904e-04, -3.47707756e-02, 2.81327474e-03,
       9.54847783e-03, 1.16151813e-02, 3.11687216e-02, -2.11216900e-02,
       5.15690353e-03, -4.68446035e-03, 2.06837337e-02, -2.13220883e-02,
       3.64945643e-02, 2.67759282e-02, -2.01114058e-03, 5.41069098e-02,
       1.47367418e-02, 1.57844219e-02, -7.52420025e-03, -2.22344557e-03,
       6.39498513e-03, -7.30088307e-03, -7.74504617e-04, -1.53773064e-02,
       8.73429701e-04, 3.72079201e-02, -4.64515015e-02, -2.79646832e-02,
       9.08601272e-04, 1.41484058e-03, 1.64038129e-03, 1.91605575e-02,
       2.03532521e-02, 3.97455841e-02, -7.63869146e-03, 1.08606750e-02,
       3.24131176e-02, 3.78559306e-02, -1.40006961e-02, -2.89473981e-02,
       -1.05357384e-02, -1.29481433e-02, -3.88801843e-02, 1.28874732e-02,
       -8.84841848e-03, -9.95945767e-04, -1.33531652e-02,
       -8.22943635e-03, -3.48177552e-02, 1.78186633e-02, -2.16919351e-02,
       -7.57585003e-05, 3.57586108e-02, 3.45735289e-02, 5.39681911e-02,
       2.94431951e-02, -3.37863117e-02, -7.40242898e-02, -1.81408171e-02,
       -3.47197838e-02, -3.12714316e-02, 2.19527688e-02, -2.29468886e-02,
       2.34390758e-02, 5.78241842e-03, -1.84550304e-02, -1.45634701e-02,
       -1.31422114e-02, 5.27681736e-03, -4.98534041e-03, 9.76137258e-03,
       -7.75615638e-03, -9.74126905e-03, -1.53194396e-02, 1.91297159e-02,
       2.20713224e-02, -2.30917241e-02, 1.38148265e-02, -4.65712044e-03,
       -2.35835072e-02, -2.53301603e-03, -2.07105745e-02,
       -4.81547415e-02, 1.13008516e-02, -4.20873575e-02, -2.50259284e-02,
       -2.37466227e-02, -1.40541578e-02, -8.71801842e-03,
       -4.33044694e-02, -2.62837783e-02, -4.65568970e-04, 1.86548028e-02,
       -1.16870636e-02, -9.37350374e-03, 7.83623476e-03, -2.35040090e-03,
       -4.80365120e-02, -4.35961001e-02, -2.46005356e-02,
       -3.78931239e-02, 1.61388583e-04, -2.57927585e+00 ]
